digraph Tree {
node [shape=box, style="filled, rounded", color="black", fontname="helvetica"] ;
edge [fontname="helvetica"] ;
0 [label="X <= 0.15\nsquared_error = 39.738\nsamples = 200\nvalue = 7.524", fillcolor="#f4ccae"] ;
1 [label="X <= 0.076\nsquared_error = 9.454\nsamples = 33\nvalue = 15.732", fillcolor="#e99355"] ;
0 -> 1 [labeldistance=2.5, labelangle=45, headlabel="True"] ;
2 [label="squared_error = 2.828\nsamples = 17\nvalue = 18.321", fillcolor="#e58139"] ;
1 -> 2 ;
3 [label="squared_error = 1.81\nsamples = 16\nvalue = 12.982", fillcolor="#eda673"] ;
1 -> 3 ;
4 [label="X <= 0.823\nsquared_error = 29.78\nsamples = 167\nvalue = 5.902", fillcolor="#f7d7c0"] ;
0 -> 4 [labeldistance=2.5, labelangle=-45, headlabel="False"] ;
5 [label="X <= 0.255\nsquared_error = 8.993\nsamples = 133\nvalue = 3.604", fillcolor="#fae7d9"] ;
4 -> 5 ;
6 [label="X <= 0.206\nsquared_error = 2.544\nsamples = 24\nvalue = 7.65", fillcolor="#f4cbad"] ;
5 -> 6 ;
7 [label="squared_error = 0.683\nsamples = 13\nvalue = 8.967", fillcolor="#f2c29e"] ;
6 -> 7 ;
8 [label="squared_error = 0.268\nsamples = 11\nvalue = 6.093", fillcolor="#f6d5be"] ;
6 -> 8 ;
9 [label="X <= 0.72\nsquared_error = 6.015\nsamples = 109\nvalue = 2.713", fillcolor="#fbede2"] ;
5 -> 9 ;
10 [label="X <= 0.334\nsquared_error = 2.017\nsamples = 87\nvalue = 1.713", fillcolor="#fdf4ed"] ;
9 -> 10 ;
11 [label="X <= 0.303\nsquared_error = 0.542\nsamples = 21\nvalue = 3.478", fillcolor="#fae8da"] ;
10 -> 11 ;
12 [label="squared_error = 0.294\nsamples = 10\nvalue = 4.124", fillcolor="#f9e3d3"] ;
11 -> 12 ;
13 [label="squared_error = 0.041\nsamples = 11\nvalue = 2.89", fillcolor="#fbece0"] ;
11 -> 13 ;
14 [label="X <= 0.641\nsquared_error = 1.181\nsamples = 66\nvalue = 1.152", fillcolor="#fdf8f3"] ;
10 -> 14 ;
15 [label="X <= 0.4\nsquared_error = 0.514\nsamples = 55\nvalue = 0.784", fillcolor="#fefaf7"] ;
14 -> 15 ;
16 [label="squared_error = 0.112\nsamples = 12\nvalue = 1.682", fillcolor="#fdf4ee"] ;
15 -> 16 ;
17 [label="X <= 0.576\nsquared_error = 0.339\nsamples = 43\nvalue = 0.534", fillcolor="#fefcfa"] ;
15 -> 17 ;
18 [label="X <= 0.494\nsquared_error = 0.051\nsamples = 28\nvalue = 0.165", fillcolor="#fffefe"] ;
17 -> 18 ;
19 [label="squared_error = 0.073\nsamples = 10\nvalue = 0.328", fillcolor="#fffdfc"] ;
18 -> 19 ;
20 [label="squared_error = 0.016\nsamples = 18\nvalue = 0.075", fillcolor="#ffffff"] ;
18 -> 20 ;
21 [label="squared_error = 0.147\nsamples = 15\nvalue = 1.223", fillcolor="#fdf7f3"] ;
17 -> 21 ;
22 [label="squared_error = 0.464\nsamples = 11\nvalue = 2.99", fillcolor="#fbebdf"] ;
14 -> 22 ;
23 [label="X <= 0.778\nsquared_error = 2.247\nsamples = 22\nvalue = 6.666", fillcolor="#f6d1b7"] ;
9 -> 23 ;
24 [label="squared_error = 0.734\nsamples = 12\nvalue = 5.482", fillcolor="#f7dac4"] ;
23 -> 24 ;
25 [label="squared_error = 0.358\nsamples = 10\nvalue = 8.088", fillcolor="#f4c8a8"] ;
23 -> 25 ;
26 [label="X <= 0.916\nsquared_error = 9.597\nsamples = 34\nvalue = 14.893", fillcolor="#ea995e"] ;
4 -> 26 ;
27 [label="squared_error = 2.625\nsamples = 19\nvalue = 12.54", fillcolor="#eda978"] ;
26 -> 27 ;
28 [label="squared_error = 2.54\nsamples = 15\nvalue = 17.873", fillcolor="#e6843e"] ;
26 -> 28 ;
}